digraph Tree {
node [shape=box, style="filled, rounded", color="black", fontname=helvetica] ;
edge [fontname=helvetica] ;
0 [label="petal length (cm) <= 4.75\ngini = 0.66\nsamples = 93\nvalue = [45, 46, 59]\nclass = virginica", fillcolor="#efe6fc"] ;
1 [label="petal length (cm) <= 2.45\ngini = 0.5\nsamples = 58\nvalue = [45, 42, 0]\nclass = setosa", fillcolor="#fdf7f2"] ;
0 -> 1 [labeldistance=2.5, labelangle=45, headlabel="True"] ;
2 [label="gini = 0.0\nsamples = 34\nvalue = [45, 0, 0]\nclass = setosa", fillcolor="#e58139"] ;
1 -> 2 ;
3 [label="gini = 0.0\nsamples = 24\nvalue = [0, 42, 0]\nclass = versicolor", fillcolor="#39e581"] ;
1 -> 3 ;
4 [label="petal length (cm) <= 5.15\ngini = 0.12\nsamples = 35\nvalue = [0, 4, 59]\nclass = virginica", fillcolor="#8a46e7"] ;
0 -> 4 [labeldistance=2.5, labelangle=-45, headlabel="False"] ;
5 [label="sepal length (cm) <= 6.6\ngini = 0.27\nsamples = 14\nvalue = [0, 4, 21]\nclass = virginica", fillcolor="#995fea"] ;
4 -> 5 ;
6 [label="sepal width (cm) <= 2.75\ngini = 0.16\nsamples = 12\nvalue = [0, 2, 21]\nclass = virginica", fillcolor="#8d4ce7"] ;
5 -> 6 ;
7 [label="petal length (cm) <= 5.05\ngini = 0.32\nsamples = 6\nvalue = [0, 2, 8]\nclass = virginica", fillcolor="#a06aec"] ;
6 -> 7 ;
8 [label="petal length (cm) <= 4.95\ngini = 0.2\nsamples = 5\nvalue = [0, 1, 8]\nclass = virginica", fillcolor="#9152e8"] ;
7 -> 8 ;
9 [label="sepal width (cm) <= 2.6\ngini = 0.5\nsamples = 2\nvalue = [0, 1, 1]\nclass = versicolor", fillcolor="#ffffff"] ;
8 -> 9 ;
10 [label="gini = 0.0\nsamples = 1\nvalue = [0, 1, 0]\nclass = versicolor", fillcolor="#39e581"] ;
9 -> 10 ;
11 [label="gini = 0.0\nsamples = 1\nvalue = [0, 0, 1]\nclass = virginica", fillcolor="#8139e5"] ;
9 -> 11 ;
12 [label="gini = 0.0\nsamples = 3\nvalue = [0, 0, 7]\nclass = virginica", fillcolor="#8139e5"] ;
8 -> 12 ;
13 [label="gini = 0.0\nsamples = 1\nvalue = [0, 1, 0]\nclass = versicolor", fillcolor="#39e581"] ;
7 -> 13 ;
14 [label="gini = 0.0\nsamples = 6\nvalue = [0, 0, 13]\nclass = virginica", fillcolor="#8139e5"] ;
6 -> 14 ;
15 [label="gini = 0.0\nsamples = 2\nvalue = [0, 2, 0]\nclass = versicolor", fillcolor="#39e581"] ;
5 -> 15 ;
16 [label="gini = 0.0\nsamples = 21\nvalue = [0, 0, 38]\nclass = virginica", fillcolor="#8139e5"] ;
4 -> 16 ;
}